<?xml version="1.0"?>
<opencv_storage>
<my_svm type_id="opencv-ml-svm">
  <svm_type>C_SVC</svm_type>
  <kernel><type>LINEAR</type></kernel>
  <C>1.</C>
  <term_criteria><epsilon>2.2204460492503131e-016</epsilon>
    <iterations>1000</iterations></term_criteria>
  <var_all>1200</var_all>
  <var_count>1200</var_count>
  <class_count>2</class_count>
  <class_labels type_id="opencv-matrix">
    <rows>1</rows>
    <cols>2</cols>
    <dt>i</dt>
    <data>
      0 1</data></class_labels>
  <sv_total>1</sv_total>
  <support_vectors>
    <_>
      0. 0. 0. 0. 0. 0. 0. 0. 0. 0. 0. 0. 0. 0. 0. 0. 0. 0. 0. 0. 0. 0.
      0. 0. 0. 0. 0. 0. 0. 0. 0. 0. 0. 0. 0. 0. 0. 0. 0. 0. 0. 0. 0. 0.
      0. 0. 0. 0. 0. 0. 0. 0. 0. 0. 0. 0. 0. 0. 0. 0. 0. 0. 0. 0. 0. 0.
      0. 0. 0. 0. 0. 0. 0. 0. 0. 0. 0. 0. 0. 0. 0. 0. 0. 0. 0. 0. 0. 0.
      0. 0. 0. 0. 0. 0. 0. 0. 0. 0. 0. 0. 0. 0. 0. 0. 0. 0. 0. 0. 0. 0.
      0. 0. 0. 0. 0. 0. 0. 0. 0. 0. 0. 0. 0. 0. 0. 0. 0. 0. 0. 0. 0. 0.
      0. 0. 0. -8.83208429e-007 -8.83208429e-007 -8.83208429e-007
      -1.51407164e-006 -1.51407164e-006 -1.51407164e-006
      -1.01205660e-006 -1.01205660e-006 -1.01205660e-006
      -1.12922680e-005 -1.12922680e-005 -1.12922680e-005
      -7.85726570e-006 -7.85726570e-006 -7.85726570e-006
      -3.18394063e-006 -3.18394063e-006 -3.18394063e-006
      -1.14136637e-004 -1.14136637e-004 -1.14136637e-004
      -4.49402905e-005 -4.49402905e-005 -4.49402905e-005 6.08159353e-005
      6.08159353e-005 6.08159353e-005 1.46339735e-005 1.46339735e-005
      1.46339735e-005 0. 0. 0. 0. 0. 0. 0. 0. 0. 0. 0. 0. 0. 0. 0. 0. 0.
      0. 0. 0. 0. 0. 0. 0. 0. 0. 0. -1.45098534e-006 -1.45098534e-006
      -1.45098534e-006 -1.50239075e-005 -1.50239075e-005
      -1.50239075e-005 -2.69716347e-005 -2.69716347e-005
      -2.69716347e-005 -2.64930313e-005 -2.64930313e-005
      -2.64930313e-005 -3.22384913e-005 -3.22384913e-005
      -3.22384913e-005 6.84072875e-005 6.84072875e-005 6.84072875e-005
      2.19128036e-004 2.19128036e-004 2.19128036e-004 3.13499550e-005
      3.13499550e-005 3.13499550e-005 -1.14274197e-004 -1.14274197e-004
      -1.14274197e-004 -2.06354198e-005 -2.06354198e-005
      -2.06354198e-005 4.16814692e-005 4.16814692e-005 4.16814692e-005
      1.39326012e-005 1.39326012e-005 1.39326012e-005 0. 0. 0. 0. 0. 0.
      0. 0. 0. 0. 0. 0. 0. 0. 0. 0. 0. 0. 0. 0. 0. 0. 0. 0.
      -7.00258124e-006 -7.00258124e-006 -7.00258124e-006
      -2.06164659e-005 -2.06164659e-005 -2.06164659e-005
      -3.67208122e-005 -3.67208122e-005 -3.67208122e-005
      -2.14810989e-005 -2.14810989e-005 -2.14810989e-005 1.62665310e-005
      1.62665310e-005 1.62665310e-005 9.32467883e-005 9.32467883e-005
      9.32467883e-005 1.21768157e-004 1.21768157e-004 1.21768157e-004
      4.78188485e-005 4.78188485e-005 4.78188485e-005 1.02995764e-004
      1.02995764e-004 1.02995764e-004 -8.50707656e-005 -8.50707656e-005
      -8.50707656e-005 9.87539534e-006 9.87539534e-006 9.87539534e-006
      2.67471696e-005 2.67471696e-005 2.67471696e-005 -6.86320391e-006
      -6.86320391e-006 -6.86320391e-006 0. 0. 0. 0. 0. 0. 0. 0. 0. 0. 0.
      0. 0. 0. 0. 0. 0. 0. 0. 0. 0. 2.37527752e-006 2.37527752e-006
      2.37527752e-006 3.33738217e-006 3.33738217e-006 3.33738217e-006
      -4.18728314e-006 -4.18728314e-006 -4.18728314e-006 3.97911172e-005
      3.97911172e-005 3.97911172e-005 5.21726979e-005 5.21726979e-005
      5.21726979e-005 2.32336861e-005 2.32336861e-005 2.32336861e-005
      7.44683257e-006 7.44683257e-006 7.44683257e-006 -3.24458888e-005
      -3.24458888e-005 -3.24458888e-005 1.20820609e-004 1.20820609e-004
      1.20820609e-004 -7.15480128e-005 -7.15480128e-005 -7.15480128e-005
      -9.29988819e-005 -9.29988819e-005 -9.29988819e-005
      -1.51924212e-007 -1.51924212e-007 -1.51924212e-007 1.96202745e-005
      1.96202745e-005 1.96202745e-005 0. 0. 0. 0. 0. 0. 0. 0. 0. 0. 0.
      0. 0. 0. 0. 0. 0. 0. 0. 0. 0. 8.64992762e-006 8.64992762e-006
      8.64992762e-006 1.25223642e-005 1.25223642e-005 1.25223642e-005
      3.66125205e-005 3.66125205e-005 3.66125205e-005 1.01616468e-004
      1.01616468e-004 1.01616468e-004 3.06188158e-005 3.06188158e-005
      3.06188158e-005 -8.91926538e-005 -8.91926538e-005 -8.91926538e-005
      7.68301034e-005 7.68301034e-005 7.68301034e-005 5.38171516e-005
      5.38171516e-005 5.38171516e-005 4.44504876e-005 4.44504876e-005
      4.44504876e-005 1.42155623e-005 1.42155623e-005 1.42155623e-005
      8.48473462e-007 8.48473462e-007 8.48473462e-007 9.35323260e-005
      9.35323260e-005 9.35323260e-005 7.07418585e-005 7.07418585e-005
      7.07418585e-005 4.99982525e-006 4.99982525e-006 4.99982525e-006 0.
      0. 0. 0. 0. 0. 0. 0. 0. 0. 0. 0. 0. 0. 0. 8.99592465e-007
      8.99592465e-007 8.99592465e-007 1.97243698e-005 1.97243698e-005
      1.97243698e-005 4.89882004e-005 4.89882004e-005 4.89882004e-005
      9.95242590e-005 9.95242590e-005 9.95242590e-005 8.00657508e-005
      8.00657508e-005 8.00657508e-005 -3.92344118e-005 -3.92344118e-005
      -3.92344118e-005 5.39895482e-005 5.39895482e-005 5.39895482e-005
      4.44531142e-005 4.44531142e-005 4.44531142e-005 -5.94061166e-005
      -5.94061166e-005 -5.94061166e-005 -4.42404889e-005
      -4.42404889e-005 -4.42404889e-005 8.64812409e-006 8.64812409e-006
      8.64812409e-006 1.21642093e-004 1.21642093e-004 1.21642093e-004
      1.49884101e-004 1.49884101e-004 1.49884101e-004 1.38437143e-004
      1.38437143e-004 1.38437143e-004 3.24859793e-005 3.24859793e-005
      3.24859793e-005 -1.88016929e-005 -1.88016929e-005 -1.88016929e-005
      0. 0. 0. 0. 0. 0. 0. 0. 0. 0. 0. 0. 6.69272958e-006
      6.69272958e-006 6.69272958e-006 4.85982309e-005 4.85982309e-005
      4.85982309e-005 -1.53330493e-005 -1.53330493e-005 -1.53330493e-005
      -6.36155164e-006 -6.36155164e-006 -6.36155164e-006
      -1.02190897e-004 -1.02190897e-004 -1.02190897e-004 3.95445277e-005
      3.95445277e-005 3.95445277e-005 6.47807101e-005 6.47807101e-005
      6.47807101e-005 -2.80062632e-005 -2.80062632e-005 -2.80062632e-005
      -1.60766358e-004 -1.60766358e-004 -1.60766358e-004
      -2.79417345e-005 -2.79417345e-005 -2.79417345e-005 8.40271314e-005
      8.40271314e-005 8.40271314e-005 1.66442391e-004 1.66442391e-004
      1.66442391e-004 7.84911390e-005 7.84911390e-005 7.84911390e-005
      1.08614724e-004 1.08614724e-004 1.08614724e-004 9.15442870e-005
      9.15442870e-005 9.15442870e-005 -1.63756667e-005 -1.63756667e-005
      -1.63756667e-005 0. 0. 0. 0. 0. 0. 0. 0. 0. 0. 0. 0.
      2.44855164e-005 2.44855164e-005 2.44855164e-005 6.12602453e-005
      6.12602453e-005 6.12602453e-005 1.08844588e-005 1.08844588e-005
      1.08844588e-005 6.34401731e-005 6.34401731e-005 6.34401731e-005
      1.08710468e-004 1.08710468e-004 1.08710468e-004 1.46240069e-004
      1.46240069e-004 1.46240069e-004 -1.03905877e-004 -1.03905877e-004
      -1.03905877e-004 -2.86475464e-004 -2.86475464e-004
      -2.86475464e-004 -2.08815138e-004 -2.08815138e-004
      -2.08815138e-004 -7.46832347e-006 -7.46832347e-006
      -7.46832347e-006 4.47394850e-005 4.47394850e-005 4.47394850e-005
      1.62751210e-004 1.62751210e-004 1.62751210e-004 7.24628262e-005
      7.24628262e-005 7.24628262e-005 7.97294633e-005 7.97294633e-005
      7.97294633e-005 1.20657394e-004 1.20657394e-004 1.20657394e-004
      -4.30257757e-007 -4.30257757e-007 -4.30257757e-007 0. 0. 0. 0. 0.
      0. 0. 0. 0. 0. 0. 0. 4.63007600e-005 4.63007600e-005
      4.63007600e-005 1.12738613e-004 1.12738613e-004 1.12738613e-004
      9.77888703e-005 9.77888703e-005 9.77888703e-005 1.29797976e-004
      1.29797976e-004 1.29797976e-004 2.90722965e-004 2.90722965e-004
      2.90722965e-004 1.02708131e-004 1.02708131e-004 1.02708131e-004
      -1.66573373e-004 -1.66573373e-004 -1.66573373e-004
      -3.88676795e-004 -3.88676795e-004 -3.88676795e-004
      -1.19748678e-004 -1.19748678e-004 -1.19748678e-004 1.27600113e-004
      1.27600113e-004 1.27600113e-004 8.97683567e-005 8.97683567e-005
      8.97683567e-005 1.20167409e-004 1.20167409e-004 1.20167409e-004
      5.15932770e-005 5.15932770e-005 5.15932770e-005 9.39080564e-005
      9.39080564e-005 9.39080564e-005 1.05778039e-004 1.05778039e-004
      1.05778039e-004 -6.02360888e-006 -6.02360888e-006 -6.02360888e-006
      -1.07564438e-006 -1.07564438e-006 -1.07564438e-006 0. 0. 0. 0. 0.
      0. 0. 0. 0. 6.01643005e-005 6.01643005e-005 6.01643005e-005
      1.13912727e-004 1.13912727e-004 1.13912727e-004 6.60417718e-005
      6.60417718e-005 6.60417718e-005 1.86559439e-004 1.86559439e-004
      1.86559439e-004 2.90666474e-004 2.90666474e-004 2.90666474e-004
      5.45030962e-005 5.45030962e-005 5.45030962e-005 -2.87046860e-004
      -2.87046860e-004 -2.87046860e-004 -3.47825553e-004
      -3.47825553e-004 -3.47825553e-004 -1.17022155e-005
      -1.17022155e-005 -1.17022155e-005 1.65349906e-004 1.65349906e-004
      1.65349906e-004 4.47962484e-005 4.47962484e-005 4.47962484e-005
      9.33778501e-005 9.33778501e-005 9.33778501e-005 1.10611865e-004
      1.10611865e-004 1.10611865e-004 1.31125067e-004 1.31125067e-004
      1.31125067e-004 6.42530940e-005 6.42530940e-005 6.42530940e-005
      -1.07564438e-006 -1.07564438e-006 -1.07564438e-006 0. 0. 0. 0. 0.
      0. 0. 0. 0. 2.48024691e-007 2.48024691e-007 2.48024691e-007
      5.16698892e-005 5.16698892e-005 5.16698892e-005 8.06797398e-005
      8.06797398e-005 8.06797398e-005 6.32487645e-005 6.32487645e-005
      6.32487645e-005 1.16791700e-004 1.16791700e-004 1.16791700e-004
      2.64099421e-004 2.64099421e-004 2.64099421e-004 9.59468525e-005
      9.59468525e-005 9.59468525e-005 -2.10769969e-004 -2.10769969e-004
      -2.10769969e-004 -1.17340700e-004 -1.17340700e-004
      -1.17340700e-004 8.09067933e-005 8.09067933e-005 8.09067933e-005
      2.64630886e-004 2.64630886e-004 2.64630886e-004 1.26689571e-004
      1.26689571e-004 1.26689571e-004 1.05251092e-004 1.05251092e-004
      1.05251092e-004 1.58202529e-004 1.58202529e-004 1.58202529e-004
      9.15326382e-005 9.15326382e-005 9.15326382e-005 2.02952306e-005
      2.02952306e-005 2.02952306e-005 0. 0. 0. 0. 0. 0. 0. 0. 0. 0. 0.
      0. 1.27980729e-006 1.27980729e-006 1.27980729e-006 3.03601300e-005
      3.03601300e-005 3.03601300e-005 1.18170152e-004 1.18170152e-004
      1.18170152e-004 1.62258089e-004 1.62258089e-004 1.62258089e-004
      5.52468882e-005 5.52468882e-005 5.52468882e-005 4.64082987e-005
      4.64082987e-005 4.64082987e-005 5.76508610e-005 5.76508610e-005
      5.76508610e-005 -2.86333758e-004 -2.86333758e-004 -2.86333758e-004
      -1.35463226e-004 -1.35463226e-004 -1.35463226e-004 1.65361096e-004
      1.65361096e-004 1.65361096e-004 1.82311240e-004 1.82311240e-004
      1.82311240e-004 1.45338599e-005 1.45338599e-005 1.45338599e-005
      -4.86262543e-005 -4.86262543e-005 -4.86262543e-005 3.47333480e-005
      3.47333480e-005 3.47333480e-005 2.89050695e-005 2.89050695e-005
      2.89050695e-005 -9.94003767e-006 -9.94003767e-006 -9.94003767e-006
      -2.53014150e-007 -2.53014150e-007 -2.53014150e-007 0. 0. 0. 0. 0.
      0. 0. 0. 0. 1.87506657e-006 1.87506657e-006 1.87506657e-006
      1.95760967e-005 1.95760967e-005 1.95760967e-005 6.02730033e-005
      6.02730033e-005 6.02730033e-005 9.19407103e-005 9.19407103e-005
      9.19407103e-005 -5.85940688e-005 -5.85940688e-005 -5.85940688e-005
      1.84693527e-005 1.84693527e-005 1.84693527e-005 1.17677730e-004
      1.17677730e-004 1.17677730e-004 -1.14428462e-004 -1.14428462e-004
      -1.14428462e-004 -1.55288566e-004 -1.55288566e-004
      -1.55288566e-004 1.17857839e-004 1.17857839e-004 1.17857839e-004
      -4.90660859e-005 -4.90660859e-005 -4.90660859e-005
      -1.28821513e-004 -1.28821513e-004 -1.28821513e-004
      -7.00749297e-005 -7.00749297e-005 -7.00749297e-005 1.01850701e-005
      1.01850701e-005 1.01850701e-005 -1.08990653e-005 -1.08990653e-005
      -1.08990653e-005 -2.56809362e-005 -2.56809362e-005
      -2.56809362e-005 -3.03616980e-006 -3.03616980e-006
      -3.03616980e-006 0. 0. 0. 0. 0. 0. 0. 0. 0. 2.10324924e-006
      2.10324924e-006 2.10324924e-006 1.66141690e-005 1.66141690e-005
      1.66141690e-005 3.59595469e-005 3.59595469e-005 3.59595469e-005
      -6.32450101e-005 -6.32450101e-005 -6.32450101e-005
      -1.25392253e-004 -1.25392253e-004 -1.25392253e-004 9.97535099e-005
      9.97535099e-005 9.97535099e-005 1.46881226e-004 1.46881226e-004
      1.46881226e-004 6.96087081e-005 6.96087081e-005 6.96087081e-005
      3.28123897e-005 3.28123897e-005 3.28123897e-005 5.02549410e-005
      5.02549410e-005 5.02549410e-005 -5.81378554e-005 -5.81378554e-005
      -5.81378554e-005 1.46635266e-005 1.46635266e-005 1.46635266e-005
      3.88111584e-005 3.88111584e-005 3.88111584e-005 3.36788762e-005
      3.36788762e-005 3.36788762e-005 1.56995441e-006 1.56995441e-006
      1.56995441e-006 -3.92171933e-006 -3.92171933e-006 -3.92171933e-006
      -2.53014150e-007 -2.53014150e-007 -2.53014150e-007 0. 0. 0. 0. 0.
      0. 0. 0. 0. 9.62335776e-007 9.62335776e-007 9.62335776e-007
      1.75288751e-005 1.75288751e-005 1.75288751e-005 7.32100380e-005
      7.32100380e-005 7.32100380e-005 -2.53287508e-005 -2.53287508e-005
      -2.53287508e-005 -5.07980585e-005 -5.07980585e-005
      -5.07980585e-005 5.32706217e-005 5.32706217e-005 5.32706217e-005
      1.00443322e-004 1.00443322e-004 1.00443322e-004 1.62423064e-004
      1.62423064e-004 1.62423064e-004 1.38870164e-004 1.38870164e-004
      1.38870164e-004 5.19999912e-006 5.19999912e-006 5.19999912e-006
      -6.89749140e-005 -6.89749140e-005 -6.89749140e-005 4.16062030e-005
      4.16062030e-005 4.16062030e-005 3.72153409e-005 3.72153409e-005
      3.72153409e-005 1.62163553e-006 1.62163553e-006 1.62163553e-006 0.
      0. 0. 0. 0. 0. 0. 0. 0. 0. 0. 0. 0. 0. 0. 0. 0. 0. 0. 0. 0.
      2.88894007e-005 2.88894007e-005 2.88894007e-005 6.37266203e-005
      6.37266203e-005 6.37266203e-005 5.36001899e-005 5.36001899e-005
      5.36001899e-005 4.68731996e-005 4.68731996e-005 4.68731996e-005
      5.90215714e-005 5.90215714e-005 5.90215714e-005 8.96951678e-005
      8.96951678e-005 8.96951678e-005 9.03046239e-005 9.03046239e-005
      9.03046239e-005 8.84159017e-005 8.84159017e-005 8.84159017e-005
      3.75202399e-005 3.75202399e-005 3.75202399e-005 -5.68639371e-005
      -5.68639371e-005 -5.68639371e-005 1.31407605e-005 1.31407605e-005
      1.31407605e-005 -2.92553670e-009 -2.92553670e-009 -2.92553670e-009
      -1.13555370e-006 -1.13555370e-006 -1.13555370e-006 0. 0. 0. 0. 0.
      0. 0. 0. 0. 0. 0. 0. 0. 0. 0. 0. 0. 0. 0. 0. 0. 0. 0. 0. 0. 0. 0.
      0. 0. 0. 0. 0. 0. 0. 0. 0. 0. 0. 0. 0. 0. 0. 0. 0. 0. 0. 0. 0. 0.
      0. 0. 0. 0. 0. 0. 0. 0. 0. 0. 0. 0. 0. 0. 0. 0. 0. 0. 0. 0. 0. 0.
      0. 0. 0. 0. 0. 0. 0. 0. 0. 0. 0. 0. 0. 0. 0. 0. 0. 0. 0. 0. 0. 0.
      0. 0. 0. 0. 0. 0. 0. 0. 0. 0. 0. 0. 0. 0. 0. 0. 0. 0. 0. 0. 0. 0.
      0. 0. 0. 0. 0. 0. 0. 0. 0. 0. 0. 0. 0. 0. 0. 0. 0.</_></support_vectors>
  <decision_functions>
    <_>
      <sv_count>1</sv_count>
      <rho>6.0613588443370592e-001</rho>
      <alpha>
        1.</alpha>
      <index>
        0</index></_></decision_functions></my_svm>
</opencv_storage>
